1 100
<unk> 0.0882532749255 0.0250691626645 0.0921846981162 -0.0391624673189 -0.00830258678085 0.14240123502 -0.111685182137 -0.0251010588035 -0.102601141322 -0.0895276930077 0.114537138041 0.0753571390183 -0.103210907815 -0.0761836215291 -0.02405947929 0.0415352004066 -0.0770301314195 -0.0252085529031 0.0493951357683 -0.0903504468936 -0.141864751786 -0.121016970772 0.0674868737888 -0.00623769426006 0.0633483678456 0.107278040237 -0.0460085426407 0.0245294538589 -0.017901340158 -0.0615378278966 0.0118420271435 0.0581628310288 -0.116605918179 -0.129177813927 -0.122224602586 0.0118044104315 0.0676167229829 -0.137996329382 -0.0452906268671 0.0240210293375 0.073914780552 0.0114844957993 0.0588964125172 -0.067130074846 -0.0405527644428 -0.0692789284685 0.12868711469 -0.118623698242 -0.141973943319 0.144584249519 -0.0559531088241 -0.0522546887133 0.0790037252244 0.0902803537007 -0.0397719253162 0.0910217993826 -0.129682517129 0.0762389033091 -0.072975777618 0.0896779279716 0.086071393047 -0.0865273653682 0.048881484191 -0.00372725469572 -0.0903731150289 -0.0819780567307 -0.108429091665 0.0492429711622 -0.0395541206854 0.122406076061 0.144921348035 -0.0938637521432 -0.0864722688045 0.067271564307 0.0406241728935 -0.0804096721782 -0.122280702417 0.0306943771503 -0.0206184646752 -0.0292946431534 0.131393974995 -0.104056598107 0.0105390025886 -0.107557034982 0.110881133027 0.0137440957065 -0.135288066204 -0.0605533643829 0.114422478252 -0.102763975096 0.113345877681 -0.054967036091 -0.125438499344 -0.0925496698943 0.148762732484 -0.13640042349 -0.0288026167041 -0.0892359273529 -0.0110132577557 -0.0243067582332
