66 100
python 0.552949 -0.856726 -0.142841 -0.28876 -0.146094 0.611621 -0.245618 -0.157067 1.29514 0.105567 0.206762 -0.0516466 -1.01227 -0.06362 -0.456908 0.300738 -0.396472 0.750906 -0.352723 0.0164535 0.130571 -1.15043 -0.696923 0.0899731 0.252394 0.0894718 0.365563 -0.207806 0.0285726 -0.405846 -0.301345 0.346584 -0.316053 0.128611 0.187251 -0.858939 0.208427 0.614671 0.648463 -0.275885 0.1772 0.915962 -1.46679 -0.550964 -0.742399 0.0346235 1.13057 0.295128 -1.77489 -0.461483 -0.0168132 -0.382056 -0.987245 0.265036 -0.0681527 0.192217 0.324623 0.521223 0.585319 -0.328695 -0.233346 -2.17077 -0.0615903 0.645333 0.70632 -0.0834426 -0.664661 -0.551589 0.412969 -0.0787645 -0.640374 0.0586976 0.205193 -0.239079 0.0199232 0.995781 1.43016 1.08925 -0.10385 -0.475864 -0.0638018 0.0894076 -0.337782 0.00521021 0.163077 -0.4715 -0.362976 -0.195278 0.226893 -0.112873 0.466354 0.114677 1.07934 0.895414 1.23119 0.170153 -0.491373 1.14878 -0.957613 -0.108219
of 0.435092 -0.288094 0.286661 0.170024 0.0280326 0.747055 -0.456055 -0.197526 0.419755 0.112769 0.402389 0.289309 -0.426713 -0.304312 0.494909 -0.32494 -0.285977 0.305916 -0.549181 -0.358487 -0.43013 -0.604291 0.101298 0.683779 0.34207 -0.247759 0.729545 -0.753681 -0.349388 0.350454 -0.27837 0.058069 0.808239 -0.659917 0.422335 -0.447053 -0.448052 0.268727 0.416907 0.40049 -0.195576 0.136802 -0.194334 -0.532675 0.497712 0.636241 0.375667 0.0314108 -0.179491 1.04123 -0.62373 0.4386 -0.608238 -0.173837 -0.148106 -0.404001 -0.115597 0.0157625 0.0516847 -0.487454 0.40554 0.856163 -0.252859 0.295959 -0.492803 0.474734 0.707229 -0.0188327 0.359919 -0.355642 -0.164434 -0.308296 0.191535 0.425953 -0.806028 0.653161 -0.223128 0.601524 0.0971843 -0.231879 -0.334484 0.887374 -0.379333 0.335686 0.0787648 -0.208331 0.00447164 0.393321 0.310522 0.235406 0.569597 -0.286615 0.330541 -0.252787 -0.144656 0.34203 0.246145 -0.419477 -0.294987 -0.439908
you 0.212279 0.335724 0.51644 -0.289546 -0.482248 -0.510496 -0.623299 -0.248067 -0.182139 -0.32868 -0.108959 -0.0239992 -0.12666 0.424893 -0.0974148 -0.0478525 -0.200449 0.0975264 0.150164 0.581865 -0.0425821 -0.286482 -0.287687 -0.588421 0.212643 0.260166 0.178657 -0.298788 0.178955 0.0594596 0.268424 0.414579 -0.180468 0.561615 -0.275566 0.423232 0.0870296 0.149371 0.0770246 0.0442451 -0.0953481 -0.0528253 0.344148 0.121625 -0.170879 -0.172665 0.159356 -0.419809 0.093646 -0.204679 0.250006 0.117989 0.0931819 -0.422169 0.113106 -0.043217 0.0693613 0.389242 -0.473684 0.530803 -0.188468 -0.0916697 -0.397694 0.0402029 0.213419 0.442333 -0.1341 0.289397 -0.553023 0.0521301 0.0421768 0.455376 0.538049 0.140282 0.203004 0.0495891 -0.00574034 0.0799293 0.0374055 -0.0790028 -0.202642 -0.207877 0.316279 0.155971 -0.544743 0.395346 0.0939732 0.319845 0.640502 0.187095 0.562826 -0.281879 -0.489582 -0.323242 -0.0426548 0.824778 -0.503364 0.116346 0.177075 -0.028095
and 0.00747006 0.248103 0.254563 0.0808939 -0.0931637 0.183564 -0.562333 -0.262035 0.32447 -0.0642438 -0.160936 0.304295 0.358078 0.154364 0.629592 0.0535755 -0.420895 0.348222 -0.405667 0.236709 -0.071516 -0.102039 -0.0518871 0.279472 0.282111 -0.244096 0.359126 0.490213 0.184678 0.274587 0.438732 -0.0785839 -0.422159 0.277851 -0.0074584 0.110708 -0.0462065 0.122929 -0.0995185 -0.200665 -0.745351 0.459543 -0.0685279 0.296773 -0.178987 -0.461556 0.0654461 -0.183328 0.00143814 -0.14932 0.302767 -0.244889 -0.338824 0.0304008 -0.442181 0.469862 -0.049545 0.37594 -0.173753 0.193908 -0.119271 0.278226 -0.166409 -0.476175 0.105711 0.616359 -0.0858205 -0.214613 -0.358958 -0.373441 -0.183256 0.495623 0.140908 0.227421 -0.060746 -0.162877 -0.566731 0.19705 -0.0814215 -0.0555777 -0.300086 -0.0663532 0.394309 0.363129 0.453787 -0.277508 0.105045 -0.333017 -0.164122 0.161539 0.256761 -0.171076 0.118798 -0.0106064 -0.184564 0.0113005 0.52122 0.131167 0.508679 -0.128896
the -0.484855 -0.00366708 -0.681969 0.161647 -0.585304 -0.556204 -0.344813 0.701811 -0.428613 0.226161 0.677143 -0.66759 -0.42244 -0.418553 -0.090286 -0.315183 -0.0205207 0.403885 0.342889 0.451067 -0.282004 0.584246 -0.151583 0.237965 -0.00167021 0.502405 0.0859031 0.565555 0.417483 0.41315 -0.317049 -0.534761 -0.435377 0.20114 -0.210975 -0.280619 -0.432469 0.460105 -0.563379 -0.0130278 0.147376 0.630562 -0.337574 -0.273333 -0.465643 -0.150177 -0.278991 -0.0421823 -0.489453 0.624886 -0.617838 -0.403937 -0.00753135 -0.386768 0.0399483 0.201876 0.273561 -0.245169 0.240803 0.465242 -0.278318 -0.113464 0.578385 -0.282017 0.588678 0.14066 0.330603 -0.251266 -0.300658 -0.253155 -0.19133 -0.479404 0.440762 -0.226977 0.168826 -0.0996519 0.00112434 0.202815 -0.0331146 0.416521 0.137696 0.251334 0.504919 0.307273 0.216294 0.563657 -0.366451 -0.653912 -0.0216946 -0.554507 0.237808 0.415046 -0.393763 -0.494728 -0.579547 0.200312 0.56085 0.159249 0.121263 0.612401
on -0.335955 -0.549582 -0.717647 -0.232289 0.201501 -0.410012 0.596647 0.148532 0.367786 -0.118093 -0.144789 -0.297579 0.288586 0.139816 -0.258815 -0.0346718 0.547354 -0.0813959 0.637593 0.0857121 0.0849848 -0.227349 -0.0131227 0.584388 -0.422178 0.601362 -0.361343 -0.00325977 0.958216 -0.0652312 0.698896 -0.274684 0.240224 0.223753 -0.532707 0.343883 -0.904592 0.107091 0.461758 0.787158 -0.141334 -0.216986 0.0662601 -0.208261 -0.085196 0.3207 -0.0106635 0.500182 -0.0497621 0.0569077 0.0534106 0.0974736 -0.0323086 0.469573 0.802802 -0.241753 -0.0597603 -0.67614 -0.441297 -0.321941 -0.402478 0.0635189 0.661735 0.366446 -0.13231 -0.452613 -0.146247 -0.253517 0.62426 0.13224 0.0331866 0.832939 -0.176933 -0.189067 0.0784001 0.368272 0.552753 0.00824948 -0.327006 0.00151639 -0.272442 -0.157403 0.448617 -0.55205 0.637543 0.110176 0.0542321 -0.168098 -0.0360785 0.393186 -0.0290408 0.489059 -0.143695 0.175714 0.498017 0.0307437 0.362939 -0.118111 -0.0402038 0.130949
your 0.340309 -0.193407 -0.0442162 0.310714 0.0806347 0.534088 1.24331 1.23493 1.06986 -0.633908 -1.28204 -0.563574 0.29705 0.615144 -1.17146 0.842538 0.0633868 -0.652388 0.159376 -0.573724 0.720256 0.357481 1.17862 -0.19888 -0.344264 1.22679 -0.887178 1.23729 0.100553 -0.048748 -0.396838 1.51107 0.535735 0.510144 -0.419303 0.320016 -0.404986 -0.102256 -0.330288 -0.180235 -0.00542531 -1.01965 1.27041 -0.0720006 0.646413 1.53453 -0.183195 0.489317 -0.415351 0.129115 0.158063 1.45835 0.253818 0.711148 0.585532 -0.17378 -1.46356 0.286362 0.590143 -0.0677281 -0.652479 -0.113712 0.152844 0.152431 -1.2094 -0.254168 -0.673392 0.214677 -0.430756 1.35631 -0.584459 0.205197 -0.689618 0.962571 -0.851062 0.278352 0.659654 -1.34215 0.338379 0.351719 0.398884 0.285989 -0.593294 -0.90614 -0.312362 0.0927042 -0.218966 -0.776737 -0.777377 1.50481 -1.10472 1.06762 -0.798181 0.525538 0.432249 0.865779 -0.177919 0.472446 0.13276 0.831292
computer -0.485303 1.29763 -0.0625804 -0.0791443 0.704612 -0.198963 0.503026 -0.0498011 0.148966 0.338728 -0.493421 -0.316542 0.459694 0.213955 -1.08484 -0.792314 0.965638 -0.597826 -0.0444912 -1.06505 -1.56315 0.733252 0.0441824 -0.361424 -0.423234 0.51892 -0.278019 0.165054 -0.0143633 0.479747 -0.23397 0.44091 1.2583 -0.285703 -0.401287 -0.232094 1.09854 0.150946 0.245549 0.053726 0.111313 -0.724544 0.601797 1.02309 0.00401616 0.180261 -0.114077 -0.272916 0.596813 -0.876131 1.0731 -0.0481336 -0.881877 0.557667 -0.388754 0.525194 -0.79705 0.309611 -0.889866 -0.617638 1.22836 0.593961 0.243654 -1.25254 -0.819572 -0.363362 0.716725 0.344629 0.371794 0.419594 -0.715578 -0.614221 -0.372043 -0.017488 -0.2929 -0.325451 -0.688962 -0.52629 0.744173 0.0646416 0.0893392 -1.05732 -0.0961878 -0.640104 -0.467743 -0.518247 0.8874 0.0116021 -0.195646 0.838177 -0.293383 0.850055 -0.569629 0.0602234 -0.128821 1.65266 -0.709337 -1.08254 -0.707682 0.110033
release 0.2902 -0.00694229 0.141947 0.245285 -0.33688 0.747443 -0.240133 0.443535 0.333811 0.209231 0.7417 -0.00696512 -0.284554 -0.455539 0.182394 -0.319011 0.616898 0.126728 -0.935404 0.725282 -0.522265 0.430759 0.279347 0.199284 -0.224075 -0.312342 0.676556 -0.674948 -0.281808 0.348956 0.0799077 0.651927 -0.746385 -0.789411 0.222109 0.127016 0.355827 0.157109 -0.12283 0.162657 0.541375 -0.0502 -0.255574 0.0994806 -0.247361 0.383457 -0.387836 -0.289798 -0.138651 0.0244571 0.00118946 0.119664 -0.329393 -0.179894 -0.44764 -0.289415 0.157873 -0.495126 -0.485319 -0.711595 0.515766 -0.00823334 0.578857 -0.165174 -0.332176 0.0225231 -0.224901 0.0519736 0.380463 -0.0933873 -0.380613 -0.544136 0.112239 0.0458442 0.644444 0.722903 -0.431712 0.439418 0.163753 0.0592493 0.208404 0.512705 -0.367049 0.364843 0.0343447 0.217229 0.15242 -0.595369 0.348331 0.180444 0.195199 -0.0828506 0.445087 -0.389659 -0.244855 -0.938547 0.391189 0.162177 -0.241822 0.176741
in -0.6954 -0.673508 -1.00128 -0.0296193 0.884829 -0.074569 0.635467 0.569391 -0.912881 0.49966 0.265789 0.803656 0.478044 -0.777183 0.102039 0.02805 0.0304956 0.245724 1.04472 -0.835481 0.0317141 -0.145419 0.33681 -0.510743 -0.948255 -0.0493684 -0.432556 0.392302 0.307083 -1.09355 1.17274 -0.239213 0.784557 -0.579231 -0.114854 -0.15527 -0.454931 -0.727675 0.277958 -0.165101 0.626116 -0.92951 0.241131 -0.112479 0.642684 -0.0139749 0.0457783 -0.340995 0.308836 0.620006 0.188925 -0.47642 0.518315 1.05344 0.223153 -0.774253 0.552799 -0.218166 -0.759061 0.76852 -0.581261 0.78749 -0.426905 0.219503 -0.45487 0.731044 -0.486549 0.357455 0.33695 0.353479 0.113052 0.604636 -0.419005 -1.19674 -1.13898 -0.165622 0.0971978 -0.532093 0.457283 -0.965088 0.0719 -0.490054 -0.381965 -0.570293 0.271076 0.131253 -0.860046 0.706104 0.794838 -0.0113609 0.140662 -0.0369009 -0.41581 -0.343233 -0.572971 0.437786 0.653025 -0.773776 -0.769531 -0.877936
this 0.183232 -0.0139537 -0.201701 0.210698 0.0710587 -0.0191218 0.187542 0.171882 -0.135679 -0.189353 0.09703 0.0511719 -0.000290439 -0.0299223 -0.139393 0.0105105 0.090876 0.0519575 0.120946 -0.198148 0.0338203 0.0876581 0.128581 -0.126692 -0.227082 0.0324486 0.0761003 0.0292786 -0.0174369 -0.13685 0.0535169 0.0538931 0.0795575 0.2959 -0.00783344 -0.0861313 -0.186993 -0.127213 -0.17466 0.13625 0.164345 -0.0806114 0.0151291 0.0474972 0.0493667 -0.0812444 0.00616481 0.0218916 -0.0164921 0.0343627 -0.131587 0.0629049 0.193855 0.271679 0.345243 -0.206385 0.101666 0.0604201 -0.0334867 -0.0102263 -0.0962442 0.136322 -0.202591 0.0579516 -0.0873182 0.000768013 0.0437469 0.157351 -0.0271429 -0.0435848 -0.054421 -0.114428 0.0860225 -0.102405 -0.0530149 -0.210376 0.145504 -0.140319 0.0636382 0.159376 0.104812 -0.148836 -0.185955 -0.0099337 0.039926 0.0302433 -0.13655 0.0611813 0.0686286 -0.0111871 -0.0340548 0.130105 -0.182576 0.248565 -0.129909 0.0738502 -0.0829358 -0.0841362 -0.0285565 -0.124748
with -0.243014 0.188257 0.542149 -0.862362 0.489839 0.741654 -0.031407 0.650524 0.071726 -0.803065 0.65069 0.23355 0.115016 0.623892 0.62491 -0.454833 -0.20431 0.853781 -0.738184 -0.102536 0.558204 -0.874239 0.438248 0.713343 0.316431 -0.75908 0.0732321 -0.217377 -0.598197 -0.000742209 -0.480048 -0.119227 -0.0558136 -0.706705 0.0850536 -0.467835 -0.605324 0.885483 -0.380974 -0.144625 0.6825 0.564252 -0.525403 -0.749414 0.795864 -0.448032 0.326804 0.700743 0.138582 0.448223 -0.765748 -0.853813 0.24356 -0.777171 -0.404333 0.416124 0.0249409 -0.334546 -0.669071 -0.576294 0.576011 0.52411 0.419852 0.137318 -0.534974 -0.17509 0.551986 -0.748899 -0.0248466 -0.127327 0.58351 -0.332604 -0.281399 -0.506182 -0.522408 0.274463 0.0802089 -0.248137 -0.390901 0.313788 0.110265 -0.184609 0.134379 -0.49373 -0.746852 0.102892 -0.664431 0.0968876 -0.579146 -0.804146 -0.611831 0.272403 0.237026 0.424068 0.836118 -0.710483 -0.34707 0.656946 0.215863 -0.140403
3 0.40916 0.0195029 0.088172 -0.0786693 -0.00556418 0.660963 0.140497 0.191605 0.223857 0.216336 0.423652 0.264136 -0.393977 -0.0832639 0.139028 0.0480926 0.457786 0.674948 -0.333345 0.294578 -0.246712 0.371581 0.266821 0.096326 0.443186 0.357414 0.292998 -0.106359 -0.624082 -0.0908082 -0.0921664 0.205288 0.637086 -0.235071 0.396965 -0.514425 0.70699 -0.275348 0.0418871 -0.200851 0.098167 -0.036113 -0.0209269 -0.44702 -0.671356 -0.167047 -0.359071 -0.503519 0.521892 -0.316338 -0.203891 0.565139 -0.0385835 -0.237793 0.0666992 0.277433 0.111252 0.227974 0.461756 -0.0420112 0.0823552 -0.63601 0.319197 0.00946794 0.0480853 0.459994 -0.152985 -0.564492 0.564763 -0.544713 -0.558139 -0.631794 0.182848 0.502651 0.602657 0.239222 0.425563 0.309751 -0.111289 0.248414 0.470294 0.750501 -0.396756 0.566509 0.618164 0.130759 0.348747 0.1467 -0.478626 0.109928 0.441655 -0.262901 -0.0471866 -0.261165 0.166318 -0.500582 -0.0865294 0.61456 0.269776 0.586398
a 0.177588 -0.398753 0.147145 -0.332749 0.0185841 0.147879 0.00106188 0.335749 0.00522311 0.426773 0.34501 0.329284 -0.212076 -0.214128 -0.302853 -0.276213 -0.14044 0.249962 -0.24694 -0.142017 -0.210482 0.254793 -0.232158 0.209759 -0.036522 0.472728 0.251692 -0.107693 0.079294 -0.107607 -0.214068 0.318046 0.157556 -0.392443 0.252628 -0.396375 0.307374 -0.0544416 -0.034532 0.0705536 0.159369 0.175933 -0.138687 0.246848 -0.661513 -0.056624 0.118573 0.0937125 0.0482477 -0.509199 -0.1955 -0.0662663 0.436756 0.144762 -0.318609 -0.194516 -0.307897 0.449367 0.200596 0.0069232 0.0341091 -0.520352 0.0446324 0.235843 0.351115 0.391291 0.111078 -0.375711 0.476259 -0.123647 0.191301 -0.388843 0.371888 0.375528 0.0771087 -0.0578607 0.24993 0.0240636 0.373031 0.106043 0.335715 0.487625 -0.334431 0.228111 0.316228 0.0166533 -0.312923 0.235162 -0.107817 0.260703 0.0570463 -0.113362 0.173891 0.148919 0.210065 -0.0381003 0.239183 0.342744 -0.157233 -0.164175
mac -0.582325 -0.242331 0.368717 -0.492241 0.0687787 0.450828 0.266314 0.27995 -0.244073 -0.180473 -0.527448 -0.19429 0.708812 -0.674406 -0.18484 -0.232386 -0.212314 0.486285 0.546572 -0.0862852 0.14898 -0.665789 -0.0642564 0.739937 -0.197209 -0.286493 -0.556819 -0.0709412 0.193239 0.364794 0.182135 -0.602985 0.279143 -0.401514 -0.202085 -0.275848 -0.0120499 -0.214774 0.192426 0.12767 0.265701 -0.422137 0.395059 0.781435 -0.0904302 -0.343766 -0.387924 0.362394 0.250199 0.148057 0.201163 -0.63991 0.202261 0.309506 0.205406 0.151882 -0.631371 -0.239994 -0.514953 -0.0265432 0.237786 0.418934 0.211425 -0.447553 0.581304 -0.0792763 0.49508 -0.0507577 0.556871 0.135285 0.582816 0.20331 -0.390625 -0.341163 0.29779 -0.485353 0.199305 -0.382542 -0.237957 0.35889 -0.477958 -0.706409 0.527775 -0.294037 0.482408 -0.742279 -0.221033 -0.418558 -0.452963 -0.258071 -0.259891 0.318227 -0.479352 0.414385 0.273621 0.46457 0.507653 -0.225539 -0.261298 -0.470713
os -0.0604774 -0.0446099 0.5992 -0.328323 0.314306 0.455588 0.322467 0.368956 0.185573 -0.220333 -0.341834 -0.189982 0.456073 0.530747 -0.0849106 0.57852 -0.623614 0.44256 -0.212516 -0.28797 0.545656 -0.232553 0.383956 -0.441055 -0.48353 -0.0475801 -0.491511 -0.295476 -0.445476 0.196733 -0.480246 0.198312 -0.682436 -0.279568 -0.10961 -0.466703 -0.657679 -0.354699 -0.463482 -0.594977 0.274721 -0.422966 0.152076 0.338778 0.376517 -0.358331 -0.172176 0.449213 0.456908 0.536974 -0.479293 -0.0178089 0.809614 -0.365746 -0.213195 0.503343 -0.540667 -0.585339 -0.561316 -0.392042 -0.36574 0.251597 0.330771 0.446762 0.227253 0.416425 -0.393243 0.0934068 -0.438283 0.564878 0.118713 -0.10519 -0.100221 0.281226 -0.51454 -0.252881 0.468379 -0.521673 0.14002 0.21435 0.634497 -0.452491 0.658144 -0.518749 -0.630684 -0.610414 -0.525841 -0.539875 -0.462417 -0.106811 -0.665797 0.485808 -0.188264 0.376798 0.122946 -0.323839 -0.128558 0.410987 0.544473 -0.332247
x 0.45619 0.567191 0.532123 0.348787 0.6211 0.682795 0.587053 0.45481 0.47471 0.705949 -0.150761 -0.289654 -0.16345 0.0802451 -0.499498 0.592633 0.133018 -0.572482 -0.520542 -0.290038 -0.591308 -0.144902 0.319149 -0.630784 -0.521738 -0.586843 -0.393907 -0.682341 -0.646882 0.383683 -0.515527 0.429882 -0.462915 -0.534968 -0.42483 -0.635832 -0.23575 -0.555421 0.4461 -0.609706 0.458939 -0.443755 0.0029545 -0.232935 -0.5493 -0.597951 0.215761 0.196614 0.6513 0.449677 0.321281 -0.123468 -0.274324 0.174129 -0.628131 0.459847 -0.113445 -0.446881 -0.28364 -0.459187 -0.205609 -0.419147 0.448059 0.283766 0.523424 -0.523067 -0.635515 0.561137 -0.479123 0.644147 -0.481432 -0.592758 0.403962 -0.0916046 0.0356154 -0.561976 -0.274283 -0.410462 0.475097 0.445917 0.503907 -0.282508 0.495077 -0.247903 0.0764103 -0.426269 0.451194 -0.386268 -0.607266 -0.530707 0.0370227 0.376448 0.0461732 0.419934 0.384345 -0.289518 -0.379694 0.250157 0.351521 0.666488
linux 0.187546 0.629477 -0.454342 0.383761 -0.276372 0.338781 0.374319 0.488389 -0.00908912 -0.690796 0.0320219 -0.332341 -0.304315 -0.324633 -0.489206 -0.680762 0.37822 0.542782 0.395221 0.16445 -0.566359 0.380329 0.247965 0.423949 -0.0777597 0.542489 0.597212 -0.0235957 0.0571999 -0.359744 -0.120396 -0.0347371 0.58139 0.304389 0.410974 0.416661 -0.238334 -0.439841 -0.709235 0.612727 0.493625 0.352661 0.455878 0.607097 0.561088 0.0406171 0.392109 -0.434675 -0.662569 -0.383215 0.316535 0.602289 0.282712 -0.112488 0.228819 -0.579759 0.352615 0.0390479 -0.241924 -0.198075 0.281377 0.0785757 0.216483 0.528807 0.437775 0.285776 0.471284 0.0500733 0.406894 0.29458 -0.441107 -0.613472 0.546996 -0.243297 0.225025 -0.400412 0.685302 -0.47841 0.290023 0.705662 -0.512808 -0.128709 -0.403497 0.48435 0.205119 0.456745 -0.701041 -0.718574 0.553885 0.456603 0.481247 0.0912907 0.274954 0.0323384 0.0460582 0.460016 -0.518138 -0.522438 -0.527973 0.0678585
windows 0.0659069 0.101831 -0.120849 0.0705728 -0.0483036 -0.0573819 0.415139 0.333279 -0.141836 0.0760199 -0.124258 -0.224457 -0.108796 -0.222241 -0.178272 -0.409384 0.154762 -0.0998244 -0.0197947 -0.20465 -0.361818 0.316249 -0.10522 -0.13511 -0.593986 0.173576 -0.0119498 0.0265256 -0.0132401 -0.0201126 0.536791 0.153656 0.0780695 -0.088217 0.560879 0.172287 0.325982 -0.0218733 -0.0525774 0.0982608 -0.0179315 -0.0102058 -0.139432 0.162716 0.0773827 0.251959 0.157205 -0.135558 -0.0360571 -0.03182 -0.0419114 -0.0444303 0.0212363 0.567626 -0.167538 -0.350068 0.0225056 0.542331 -0.146921 -0.0553811 0.181681 0.0820235 -0.0158705 0.0454145 -0.169058 0.450321 0.0778562 0.0420726 0.00249359 0.409739 -0.115959 -0.323041 -0.0606092 -0.0839672 -0.0434494 -0.0739468 -0.138927 -0.101217 0.321893 0.0412307 0.0556631 0.037224 -0.438431 -0.137929 -0.00271141 0.719578 0.014083 -0.137069 0.200145 0.110723 0.00541028 -0.00642547 0.023376 0.124993 -0.00828506 0.115258 -0.0358287 -0.0524255 -0.143011 0.0631641
command -0.203624 -0.2686 0.113232 0.260859 -0.108174 -0.0941682 -0.29089 -0.248885 -0.344647 0.0513399 0.307137 0.300112 0.0897409 0.112589 -0.0672335 -0.0190424 0.0216743 -0.173674 0.118386 0.0592377 -0.0872246 0.400924 0.340353 0.174019 0.100777 0.0902354 0.101209 0.266054 -0.390554 -0.358387 0.33612 0.367174 0.0357229 -0.283204 0.118385 -0.221459 0.19368 -0.144175 -0.000180111 -0.215483 -0.394095 -0.189724 -0.353317 0.155142 -0.444107 -0.113168 0.00928565 -0.189315 0.232772 -0.124374 -0.166097 0.277237 0.256154 -0.114885 0.00416527 0.337257 -0.47896 0.043371 0.116317 0.122898 -0.168443 0.0947791 -0.225673 -0.355136 -0.218847 0.519826 0.0530508 0.112632 0.5681 0.029821 0.235744 -0.130281 0.334032 0.304837 0.212742 -0.225291 -0.338974 -0.00151748 0.294628 -0.251084 0.303321 0.0280456 -0.104381 0.111559 0.186355 -0.190183 0.211686 0.103824 0.0139334 -0.034124 -0.132228 0.188286 0.415841 -0.269418 -0.20038 -0.0215661 0.179674 -0.207542 -0.179925 -0.106091
before 0.0521207 0.23583 0.271036 0.0378895 -0.0977894 0.00236188 -0.188048 -0.334452 0.248555 -0.308618 -0.235541 0.328367 0.329457 -0.117273 0.224893 -0.224858 -0.232053 0.31788 -0.319605 0.201318 -0.35765 -0.310003 -0.181229 0.303776 -0.174011 -0.027062 -0.322135 0.276094 0.265942 0.221264 0.298474 -0.0656524 -0.26825 0.276677 -0.33042 0.17945 0.0102488 0.0863495 0.316814 -0.313221 -0.338906 0.278897 -0.0550769 0.289489 -0.258877 -0.320552 0.270085 -0.214946 -0.0409443 -0.30239 0.252727 -0.244547 -0.317166 0.127035 -0.283755 -0.0217037 -0.124993 0.303862 -0.203778 0.183103 -0.26713 -0.245754 -0.31271 -0.235127 0.280855 0.0550028 -0.0455194 0.088037 -0.311326 -0.184318 -0.18278 0.33496 0.266539 0.275816 -0.213279 -0.254078 -0.254138 -0.161177 -0.148573 0.121015 -0.202953 -0.212214 0.0820565 0.121818 -0.291043 -0.197405 -0.342078 -0.0260298 -0.0841126 0.277669 0.327862 -0.241643 -0.242825 0.162645 -0.0956326 0.249905 -0.209362 0.217031 0.261369 -0.168869
write 0.276286 0.123196 0.249031 0.177567 -0.20928 0.493365 -0.359018 -0.185103 -0.093055 0.325299 -0.239391 0.163335 -0.0165935 -0.0649159 -0.0435644 -0.0513766 -0.026227 0.301472 0.154722 0.278764 0.00714236 -0.239404 -0.350842 -0.253282 0.32869 -0.261169 0.311829 -0.0247957 0.172267 0.283469 0.463713 -0.22044 -0.318106 0.447088 -0.220131 0.147305 0.339148 0.385719 0.36255 0.161663 -0.197669 -0.0363458 0.0541621 0.174347 -0.305454 -0.350488 0.251121 -0.212882 -0.286637 -0.354849 0.31128 -0.128144 0.0721232 -0.0552606 -0.235382 0.0374702 -0.1651 0.381189 -0.219373 0.163326 -0.195983 -0.086037 -0.272436 -0.128492 0.285192 0.264049 0.175623 0.0939216 -0.369886 0.0237731 -0.253918 0.293342 0.318768 -0.0405894 -0.160284 0.378054 0.172148 0.357316 0.121175 -0.0134526 -0.258889 -0.232768 0.453542 0.232909 -0.0912435 -0.0574415 0.430684 -0.107651 -0.205804 0.265169 0.344731 -0.141911 0.454684 0.159223 0.305269 0.376582 0.139977 0.240673 0.133718 -0.291685
run 0.171026 0.349033 0.372395 -0.387476 -0.4884 -0.308116 -0.367686 -0.0699735 0.501398 -0.457273 0.124804 0.0406327 -0.127053 0.275778 0.0334611 0.259526 -0.0366506 0.23813 -0.479873 0.4086 -0.22617 -0.349094 0.101012 -0.0918368 0.164618 0.302499 0.115621 -0.0872644 0.219949 0.302576 0.27946 0.323955 -0.147855 0.201661 -0.144476 0.378894 -0.123707 0.193505 0.0828082 -0.0956471 0.208093 0.268661 0.328953 0.037464 -0.0280019 -0.0328517 -0.00906525 -0.419674 0.383976 -0.221512 0.160291 0.0601348 -0.500876 -0.32425 0.132359 0.321019 0.469175 0.115154 -0.519866 0.297656 -0.0883225 -0.231281 -0.294102 0.247908 0.127218 0.435168 -0.311194 0.241269 -0.39553 -0.314298 -0.282609 0.418864 0.223406 -0.0797914 0.475721 0.15866 -0.152032 0.216609 -0.314329 -0.298654 -0.424898 0.0104664 0.236974 -0.0211002 -0.334758 0.439411 0.12583 0.089896 0.418384 0.208148 0.376285 -0.288597 -0.182366 -0.186873 -0.252309 0.427546 -0.285372 0.15389 0.239913 0.348039
code 0.383011 0.421401 0.275537 0.260207 -0.0659043 0.31823 -0.204126 0.0507899 0.259635 -0.265648 -0.538597 -0.340439 0.304921 0.175474 0.526889 -0.0733152 0.0978364 -0.0184609 -0.250342 0.302352 0.259421 -0.184194 0.120242 0.519667 0.309587 -0.618816 0.281473 0.318964 0.054914 0.415207 0.542818 -0.467124 0.224246 0.0075026 0.289361 0.35677 0.579297 0.198945 -0.352327 0.191886 -0.385163 0.516309 0.214585 -0.374905 0.283852 -0.31326 -0.137005 -0.307095 0.27659 0.235606 0.342482 -0.167951 -0.244533 0.362062 0.0769093 0.461652 0.333287 -0.276806 -0.192957 -0.262462 0.344972 0.441371 0.269057 -0.456092 0.000264883 0.531913 0.306297 -0.344408 -0.427396 -0.470631 -0.539787 0.39266 0.103991 -0.383572 -0.393464 0.430144 -0.339403 0.353547 -0.373434 0.149982 -0.408381 -0.487454 0.572602 0.49204 0.435562 0.0262722 0.339175 -0.468956 -0.18267 0.655538 0.406502 -0.485748 0.267097 -0.362594 -0.0536955 -0.083964 0.378154 0.208517 0.431535 -0.0199754
need 0.358492 0.474441 0.340201 0.388105 -0.516923 -0.418385 -0.349144 -0.410453 -0.0785263 -0.174217 -0.244445 0.438251 0.399527 -0.444583 -0.150149 0.275341 -0.367934 -0.462054 -0.182364 0.356402 -0.32436 -0.276602 -0.440787 -0.41692 0.498748 0.17786 -0.508547 -0.035916 0.442958 -0.409132 -0.392136 -0.113551 -0.450755 0.292127 -0.522562 0.523356 0.518872 0.30977 -0.323787 0.619391 0.373155 -0.200051 -0.040576 -0.00612881 -0.484037 -0.448444 -0.547463 -0.497941 -0.506867 -0.249901 -0.220552 -0.240276 0.29461 0.578393 0.284493 0.523965 0.080538 0.163112 -0.484603 0.450376 -0.51921 -0.482754 -0.345931 -0.294677 0.49506 -0.420643 0.131539 -0.460687 -0.439768 -0.466082 -0.138919 0.322528 0.399406 -0.324719 -0.357661 -0.527356 -0.0330011 -0.554155 -0.431769 0.202012 -0.162696 -0.242539 -0.062552 0.474398 -0.36213 -0.498863 -0.486374 -0.451666 -0.412769 -0.409557 0.0157633 -0.590915 -0.368915 0.356429 0.117906 0.450323 -0.308491 0.53523 0.598581 -0.554856
to 0.26315 0.346198 -0.0160201 0.587407 -0.484433 -0.286103 -0.0142649 -0.114314 -0.529895 0.058038 -0.374576 -0.0385191 0.409774 -0.446758 0.425013 -0.550146 -0.281575 -0.248396 0.547702 0.355705 -0.0851939 -0.0101742 -0.119349 0.429435 -0.0433964 -0.247755 -0.523447 0.662129 0.579821 0.652814 0.0295366 -0.535051 -0.484204 0.265498 -0.609697 0.300627 0.314807 0.374278 -0.493875 -0.495004 -0.281742 0.523806 -0.0634704 -0.127471 -0.592747 -0.34745 0.441234 -0.481009 -0.0732305 0.114472 0.204424 -0.520352 0.412444 0.396581 0.284755 0.315193 -0.0492867 0.420552 0.295106 0.532199 -0.513529 0.161736 -0.124279 -0.486668 0.585814 -0.0261737 0.523146 0.248644 -0.585213 -0.534504 -0.413627 -0.475638 0.545566 -0.131312 -0.610925 -0.393715 -0.514448 -0.526272 -0.424934 0.486712 0.496437 -0.40733 0.550812 0.547752 -0.382186 -0.415557 -0.506464 -0.380092 -0.315567 0.256387 0.459789 -0.306805 -0.62449 0.0278594 -0.263776 0.353595 0.517394 0.373653 0.252269 -0.439419
make 0.608392 -0.205007 0.147918 0.392693 -0.425575 -0.295041 0.0465681 -0.386246 -0.524171 -0.406192 -0.0550963 -0.576664 0.166493 0.576337 -0.407364 -0.00162226 -0.544515 -0.255894 0.635489 0.150978 0.59046 0.453316 -0.393449 0.047554 0.200743 -0.0143635 -0.232446 -0.0319933 0.396809 0.068166 -0.492293 0.314105 0.558062 0.593284 -0.395639 0.148891 0.44071 0.231081 -0.421956 -0.390753 0.0890845 0.266033 0.061671 -0.604608 0.130244 -0.0203823 0.41824 -0.418085 0.22129 0.639335 -0.393744 -0.0474924 0.333795 0.530105 0.513827 0.364647 0.634878 0.546215 0.501653 0.356684 -0.405962 -0.0639092 -0.347514 -0.637978 0.215886 -0.531681 0.49199 0.275405 -0.137181 -0.221339 0.41424 -0.410077 0.554123 -0.542029 -0.524806 -0.227871 -0.474836 -0.295903 -0.488131 0.593084 0.561244 -0.47072 -0.475431 0.47372 -0.341353 -0.547818 -0.418726 0.615466 0.615038 -0.213332 0.495499 -0.145943 -0.451233 -0.525748 -0.515608 0.545462 -0.411451 0.520474 -0.522234 -0.447577
sure 0.19841 0.419512 -0.362828 0.16902 -0.330762 0.0596578 -0.406853 0.137845 -0.229406 -0.244237 0.604418 -0.11605 0.288617 0.376156 0.220097 0.465445 -0.170812 -0.316811 0.273065 0.407732 0.230221 0.434995 -0.0497736 -0.513098 0.570231 0.397276 -0.033959 -0.366903 0.0758513 0.103591 -0.314344 0.167069 0.295847 0.0727249 -0.115929 0.454748 0.433312 0.507229 -0.17816 0.481473 0.509216 0.187818 0.372024 -0.449894 0.251465 0.224539 -0.492203 -0.338123 -0.315825 0.604322 -0.60092 0.393597 0.0365944 0.454536 0.375232 0.544607 0.55916 0.386058 -0.3361 -0.249092 0.189629 -0.427453 0.413031 -0.3841 0.160409 -0.272608 0.550915 -0.562411 -0.387649 -0.386239 0.338243 -0.242341 0.16686 -0.472746 -0.191073 -0.339436 -0.366716 -0.222767 -0.493809 0.549012 0.368824 0.581089 -0.0637454 0.340212 -0.376214 0.173826 -0.00584953 0.210356 -0.264452 -0.536381 0.607661 -0.586041 -0.106582 -0.544008 -0.394159 0.343291 0.0325998 0.379361 0.471755 -0.292031
interpreter 0.348966 0.506127 -0.131634 0.427442 -0.445693 0.258179 0.345379 0.421937 0.529201 -0.526117 -0.133037 -0.41039 -0.563742 0.569926 0.135972 0.0750344 0.218321 -0.272588 0.166018 -0.331695 0.323178 -0.319448 0.408315 -0.479944 0.562835 0.131376 0.387902 -0.0827375 0.410698 0.0341022 0.406477 0.535463 0.368066 -0.227418 0.489112 0.424073 0.150958 0.525425 0.493991 -0.137077 -0.447823 0.125391 -0.0733952 -0.432479 0.58761 0.468186 0.507581 -0.493316 -0.26523 0.391642 0.211653 0.417584 -0.575373 0.302386 0.395302 0.52027 -0.00280375 0.0438202 0.213303 -0.318227 0.00515097 -0.388301 0.489637 -0.504857 -0.192892 0.0151679 0.550202 -0.568606 0.458393 -0.410884 -0.375504 -0.309099 -0.0155935 0.0154683 -0.407417 0.560657 -0.458862 0.174391 -0.340338 0.447166 -0.441074 0.519002 0.106959 -0.197749 -0.563915 0.418987 0.510535 -0.135918 0.290436 -0.191227 0.0514753 -0.140131 0.435504 -0.402904 0.505835 0.477008 -0.110296 0.337113 -0.432492 0.436483
is -0.446624 0.424678 -0.0727605 -0.437305 -0.182161 -0.502676 -0.249722 0.33683 0.258847 -0.356898 0.10339 -0.49914 -0.303413 -0.246569 -0.310151 -0.332717 0.418051 0.0839833 0.0111758 0.222044 -0.56161 0.149548 -0.331821 0.0801581 0.119266 0.380258 0.325793 0.431768 0.492986 0.565464 0.515173 -0.485268 0.393439 -0.599015 -0.172152 0.0457246 0.0390782 0.406875 0.301717 0.504193 -0.53129 0.315357 -0.148245 -0.306069 0.357127 0.497155 -0.184929 0.0211956 -0.0296739 0.288798 0.253793 -0.0838512 -0.418688 -0.476107 0.181902 0.410332 0.0797783 -0.458848 -0.531282 -0.374565 -0.0428307 0.325133 0.482913 -0.336161 0.142219 0.334354 0.56249 -0.540907 0.418678 -0.388874 -0.296097 0.464322 -0.00800155 -0.282109 0.237461 0.496308 -0.356917 0.345424 -0.535226 -0.407329 -0.572158 -0.445886 0.45454 -0.362899 0.32507 0.385726 0.332462 -0.237613 0.375846 -0.106705 -0.023572 0.379563 -0.112637 -0.476354 0.0467171 0.453646 0.360126 -0.417171 0.0557782 0.453318
book 0.349895 0.452425 -0.284388 0.290795 0.0943091 -0.422225 0.347284 -0.472036 -0.565371 -0.375559 0.417199 0.436374 0.331454 0.391748 -0.440273 -0.542519 0.53126 0.301114 0.313696 -0.514693 -0.0857665 0.158498 0.461241 -0.00446284 -0.422151 -0.276235 0.468445 0.366715 -0.330363 -0.539727 -0.366099 0.446948 -0.140679 0.440778 -0.106062 0.169295 0.208895 -0.271935 -0.459164 0.525341 0.420632 0.123455 -0.468852 -0.0524714 -0.0354857 -0.370441 0.371577 0.0432103 0.48513 -0.301971 -0.289628 0.0623992 0.341211 0.043817 0.524855 -0.404372 0.269316 0.257703 -0.350638 -0.379527 0.255848 0.358542 -0.533623 -0.194137 -0.470202 -0.434307 0.494007 0.58658 -0.328563 -0.0758112 -0.0311791 -0.429841 0.481239 0.073928 0.301727 -0.508794 -0.20892 -0.303771 0.438787 0.447861 0.384407 -0.525995 -0.339465 -0.0324523 -0.470204 0.346962 -0.0131602 0.261019 0.382501 0.0164852 -0.0459859 0.52923 -0.239093 0.521489 -0.362514 -0.289064 -0.476024 -0.512369 0.496616 -0.480573
you'll -0.467659 0.362429 0.0612911 -0.206214 0.459737 0.12375 -0.122194 -0.0446956 -0.502287 0.322691 0.409131 0.488118 0.447914 0.211931 0.135072 0.173692 0.469575 0.209335 -0.10716 -0.0106356 0.421349 0.359645 0.421822 0.0972738 0.185552 -0.489808 0.510818 0.496468 0.334187 -0.423997 0.247416 0.528171 -0.350346 -0.444241 -0.462891 -0.19498 -0.38768 0.390495 -0.335838 0.302301 0.184258 -0.231075 -0.487605 -0.283344 0.128219 -0.456889 -0.230607 -0.28761 0.27758 0.285432 0.45988 -0.319738 0.249021 -0.16656 0.37259 -0.296784 0.417738 -0.31492 -0.529261 -0.106899 0.342546 0.418093 -0.317867 -0.485252 -0.31057 0.0969475 -0.31877 0.256289 0.334604 -0.343212 0.42333 -0.426229 0.018495 -0.322244 -0.346564 -0.320844 -0.454805 -0.411458 0.489681 -0.212051 0.401521 -0.465363 -0.46535 -0.374338 -0.463288 0.455326 -0.438336 0.53531 -0.115809 -0.355259 -0.280344 0.358462 -0.0755265 0.422839 -0.188785 0.143775 -0.446532 -0.189969 -0.112677 -0.409211
start 0.188884 0.229671 0.0625931 0.481965 0.456897 -0.0503819 0.348817 0.316464 -0.341267 0.195831 0.527467 0.32692 0.14194 0.328834 -0.301955 0.461006 0.484334 0.293713 -0.388978 0.197866 0.339559 0.396369 0.353856 -0.395836 -0.253474 -0.481887 0.446631 0.32926 0.0790884 -0.166296 -0.209003 0.495647 -0.271253 -0.0643607 -0.336065 -0.522831 -0.153441 -0.321107 -0.0327123 -0.449723 0.437029 -0.464954 -0.447666 -0.492315 -0.360069 -0.454378 -0.45277 0.242093 0.444996 -0.230568 0.430714 0.0321455 0.324096 0.19397 0.396317 -0.450801 0.509346 -0.461337 0.270338 -0.390345 -0.401396 0.275986 -0.225946 -0.52617 -0.086666 -0.362902 -0.368227 -0.0948128 0.479534 -0.0818082 0.0301471 -0.222392 -0.141984 -0.243289 0.375515 -0.228673 -0.357169 -0.436987 0.186043 -0.23256 0.452426 -0.208386 -0.502079 0.310247 -0.0620671 0.0157539 0.263324 0.470737 -0.289181 -0.473992 -0.155454 0.0374781 -0.198098 0.344131 0.310427 -0.315088 -0.453215 -0.0589354 0.131113 0.22306
out 0.458157 -0.201426 0.400673 0.056244 0.437455 0.185322 0.438828 -0.315815 -0.187272 0.288921 0.360204 0.310387 -0.0425726 -0.158531 -0.397208 -0.128252 0.0994673 0.29904 -0.387364 -0.47203 -0.14678 -0.366574 0.0770489 0.10986 -0.0904565 -0.119982 0.315223 0.208598 -0.216417 -0.256604 -0.449143 0.410552 -0.1444 0.0458811 -0.153025 -0.427367 0.281407 -0.246871 0.322384 0.308445 0.411752 0.374704 -0.339055 -0.409961 -0.353232 -0.233717 0.357329 0.383339 0.214143 -0.213522 -0.453614 -0.0909337 0.224194 0.0320943 0.0456844 -0.393161 0.169561 -0.229279 0.227106 -0.46693 -0.375222 -0.0237889 -0.333557 -0.187662 -0.0219253 -0.194048 0.346975 0.198707 0.260187 -0.421136 -0.178841 -0.430016 0.449243 0.469474 0.144923 -0.291773 -0.0645507 -0.104915 0.349849 0.297358 0.248779 -0.18543 -0.504455 0.432116 0.292744 -0.297893 0.145668 0.436592 -0.289704 -0.145791 0.0726357 0.0904932 -0.286235 0.431663 0.417054 -0.185424 -0.396034 -0.27719 0.379032 -0.298047
very 0.0637188 0.128219 0.0932252 0.0653919 -0.299895 0.222984 -0.175709 -0.1043 0.0506304 -0.121422 0.275868 -0.219596 -0.106081 0.294866 0.0153631 0.157104 -0.0603983 0.0916747 0.199257 0.280384 0.211963 -0.0406589 -0.032833 -0.229414 0.25899 -0.110049 0.261185 -0.246419 -0.141575 0.141352 0.271189 0.146656 0.0795216 0.191136 -0.0543107 -0.0164472 0.0835777 0.246038 0.0739841 -0.137695 0.108966 0.299442 -0.0208039 -0.248638 0.126021 0.168952 -0.0628617 -0.226875 -0.0250624 0.0569606 -0.150902 0.0318122 -0.157095 -0.0608164 0.286262 0.2834 0.0782532 0.301108 0.113901 0.00123716 -0.0464851 -0.148936 0.084648 -0.130392 0.282624 0.0497808 0.0428684 0.132887 -0.161784 -0.0910359 0.137406 -0.087433 0.248003 -0.263705 0.173226 0.257757 -0.0285099 0.23936 -0.18406 0.159921 0.156157 0.24046 0.172912 0.074537 -0.303459 0.265745 0.281679 0.204034 0.261581 -0.168119 0.0979292 0.0704849 0.135664 -0.146809 -0.108258 0.1037 -0.121641 0.144992 -0.17481 0.0429053
latest -0.148991 -0.244355 -0.0541102 0.167754 -0.0997439 0.172002 -0.188215 -0.0698273 -0.221662 -0.180886 0.254955 -0.18662 0.0293816 0.194149 0.00515846 0.238555 -0.158558 0.133053 0.182092 -0.0515863 0.295974 -0.00556827 0.0768054 -0.251204 0.183654 -0.017587 0.164566 -0.138468 -0.0956054 -0.100012 0.123659 0.0438919 -0.0547649 0.319372 -0.00135209 -0.181277 0.00824541 0.153956 0.262121 -0.212045 -0.0950412 0.0516015 -0.197557 0.0269809 0.0888551 0.268843 0.230416 -0.153367 -0.24381 0.114766 -0.0722509 0.0652186 0.23561 0.0740515 0.153854 0.191095 -0.0929625 0.232455 0.274608 0.165647 -0.30378 -0.174356 -0.101273 -0.130536 0.111347 -0.00939273 -0.228824 -0.0601605 -0.0405449 0.00221132 0.161407 -0.0745659 0.147227 -0.147659 0.0778071 -0.143965 -0.0891342 -0.0573926 0.149357 -0.0101728 0.215171 0.244426 0.135685 -0.0689645 -0.211703 0.181263 0.0119027 0.180622 0.0150709 -0.152014 0.163147 0.007596 -0.101097 -0.0145337 0.0452837 0.226287 -0.272676 0.0212846 -0.297395 -0.0808888
best 0.00256638 -0.164805 0.0906492 -0.123969 -0.19259 0.0045855 -0.0309541 -0.160101 -0.0723935 0.184741 0.0832543 -0.0775585 -0.0335893 0.0836989 -0.248797 0.105664 -0.0136442 0.129346 -0.015891 0.179045 0.0740119 0.092789 -0.232638 -0.170737 -0.0712376 -0.07566 0.177117 -0.0173692 -0.0328775 -0.107519 0.164825 0.069225 -0.236297 0.117318 -0.107563 -0.209626 -0.0611454 -0.0120699 0.042845 -0.124163 0.132659 0.157008 -0.149622 0.0643807 -0.238732 0.010598 0.118581 -0.0575266 -0.173111 -0.246182 0.10538 -0.176867 0.158152 -0.129381 -0.0988316 -0.137848 -0.139599 0.11915 0.171914 0.120353 -0.0816036 -0.213565 -0.0268704 0.0938918 0.22188 0.164457 -0.159988 0.21136 -0.132388 0.177729 0.089551 -0.115313 0.208528 0.101503 0.246144 0.0129978 0.189381 -0.0126832 0.122158 -0.00818725 0.102641 0.148774 0.121405 -0.0370563 -0.123369 0.0668758 -0.0378814 0.0703102 0.152983 -0.104749 -0.0515202 0.175213 0.0779153 0.151818 0.0490857 -0.08092 -0.142042 -0.0838307 -0.211614 0.105266
version 0.120919 -0.17504 0.103413 -0.101779 -0.162636 0.189512 -0.0964167 -0.0638134 0.0559621 0.105673 -0.00739851 -0.140165 -0.074845 0.101099 -0.0754822 0.0496133 0.165248 0.14238 0.0753939 0.124608 0.169961 0.0029847 -0.114606 -0.0818734 0.000674006 0.0813613 0.166219 -0.103442 -0.0700735 0.0330491 0.163512 0.019997 -0.134557 0.168512 0.00731564 -0.0168907 0.088034 0.00424014 0.105648 -0.0516355 0.150529 0.0522606 -0.0568393 0.0554356 -0.0589244 0.181203 0.20051 -0.188056 -0.108509 -0.0769141 0.0220728 -0.125166 0.0501327 -0.0717642 0.0640261 0.116784 0.102547 0.159815 0.0940494 0.0194177 0.0298663 -0.22009 -0.0571435 0.120459 0.0770069 0.178905 -0.180758 0.0578394 -0.0866508 0.0597901 -0.0190854 0.0224233 0.0604454 -0.0226957 0.114111 0.137067 0.115164 0.0840247 0.11862 0.0154249 0.090332 0.0747287 -0.0398625 0.0629715 -0.124767 0.149043 0.0153815 0.0940462 0.0698802 0.053071 0.188519 -0.0491012 -0.0562608 0.0907823 0.123932 0.113026 -0.178629 0.00586033 -0.223635 -0.0510371
language 0.11676 0.0219664 -0.0934979 0.028262 -0.0982762 0.0939726 0.0319353 0.0340089 0.0373154 -0.0234624 0.0623287 -0.0507327 -0.12006 0.0171841 -0.0942218 -0.0135266 0.0553967 0.0742796 -0.0218246 0.112218 0.0216469 0.101051 -0.0487138 0.00194024 -0.0244419 0.0827897 0.0473816 -0.095778 0.0543138 0.0467729 -0.0626176 0.0735402 -0.0733762 -0.00384839 0.102979 0.0539048 0.029952 -0.00746233 -0.0581244 0.0962958 0.0183538 0.0310011 -0.0918749 0.0675779 -0.0291822 0.0559172 0.0383751 -0.0354027 -0.0424105 -0.00231785 -0.0107815 -0.00547423 -0.0431299 0.0817461 -0.0422609 -0.0552273 0.0724192 0.0405315 -0.00749923 -0.0603822 0.0496307 -0.108729 0.0982444 0.0124012 0.0676517 0.0530478 -0.0586393 -0.0628089 0.0920974 -0.0499686 -0.040766 -0.0543455 0.121263 -0.0416713 0.0501441 0.0883214 0.0680377 0.0277549 -0.0219208 0.124456 0.0498814 0.0814141 -0.110344 0.101206 0.0182222 0.0832419 -0.0706695 0.0170672 0.0860946 -0.0314122 0.0270593 -0.0353705 0.072772 -0.00764635 0.0459998 0.0349369 -0.0564255 0.106422 -0.101953 0.070571
might 0.580131 0.0679475 -0.511894 -0.554222 -0.00357622 -0.0864839 0.247865 0.142907 0.53498 0.447427 -0.367703 -0.457678 0.174404 0.122724 0.0314427 -0.274939 0.456034 0.067397 -0.168324 0.548246 -0.157348 0.422493 -0.0447486 0.642433 -0.284738 0.39825 0.102694 -0.545103 0.456357 0.330556 0.528393 0.0746037 -0.0445405 0.231496 0.0874364 0.59215 0.115939 0.508444 -0.456434 0.54868 -0.0125658 0.295108 -0.279199 -0.0972202 -0.441597 0.410328 -0.352139 -0.186838 -0.0713376 0.00687837 -0.362956 -0.097921 -0.355287 0.0599209 0.0760056 -0.352392 0.423232 -0.61553 -0.596973 -0.522479 0.366452 -0.0682707 0.428373 0.382658 -0.246952 -0.0365588 -0.501288 -0.507581 0.279035 0.145981 -0.375428 -0.116551 0.0942572 -0.238982 0.541407 0.453421 0.264839 0.482689 -0.455494 0.374878 -0.407704 0.524025 0.25488 0.224763 0.753293 0.445423 0.235525 -0.369652 0.177289 0.417965 0.326838 -0.228987 -0.0298453 0.0320125 0.162487 -0.634993 0.400518 0.338503 0.367837 0.52891
already 0.401541 0.31068 -0.362948 -0.513113 0.46621 -0.467684 -0.380295 -0.0541291 0.504843 0.310047 -0.526755 -0.620467 -0.283414 0.581645 0.369763 0.0522947 -0.243457 -0.486148 -0.519273 -0.00785818 -0.106296 0.326258 0.551355 0.351115 0.320321 -0.396492 0.287026 -0.091944 0.588595 0.477566 -0.135903 -0.0164954 0.455984 -0.363334 0.219887 0.622541 -0.275378 0.47336 -0.347973 0.148951 -0.627321 -0.270954 0.411298 -0.630796 0.511966 0.40113 -0.266483 -0.547845 -0.260423 0.475902 0.54382 0.532642 -0.361243 -0.417394 0.444654 -0.145481 0.290943 0.383594 -0.37925 -0.358551 0.493589 0.576251 0.487305 0.0452807 -0.56681 -0.210947 0.324778 -0.25406 -0.0516413 -0.110953 -0.402721 0.440366 0.168497 0.545619 -0.636527 0.565087 -0.516197 0.037492 -0.498607 -0.104145 -0.573986 0.615711 0.114585 0.450116 0.108201 0.346728 0.582595 -0.34908 0.19457 0.462208 0.105801 -0.145487 -0.0232567 0.0680665 0.134798 -0.0726332 -0.380015 -0.471589 0.347129 0.0921609
be -0.589621 -0.257594 -0.313926 -0.512292 0.547968 -0.645295 -0.273528 -0.5408 0.373609 0.522095 -0.561242 -0.537456 0.20409 0.254079 0.174576 -0.633574 -0.202735 -0.513503 -0.498155 -0.480459 -0.624524 -0.305815 0.00238181 0.160186 -0.0546521 -0.129882 -0.469356 -0.369965 0.662083 0.00867076 0.00772706 -0.533378 0.29453 -0.510573 0.0727885 0.542051 -0.29374 0.282743 0.631468 0.269828 -0.547325 0.451133 -0.31411 -0.349342 0.388856 0.054759 0.262598 -0.301429 -0.323178 -0.341842 0.490666 0.383937 -0.576769 0.219939 0.298388 -0.567993 0.295994 0.185129 -0.111432 -0.460874 0.704575 0.299569 0.657735 0.192098 -0.542242 -0.390142 0.344624 -0.467937 0.476042 0.487149 -0.532446 0.553835 -0.508589 0.393068 -0.129969 0.636106 -0.166042 0.0615003 -0.614985 -0.643228 -0.665978 -0.381484 -0.00399802 -0.418438 -0.0489266 -0.455076 0.595858 -0.381954 0.33725 0.494452 0.265453 0.230855 0.0597059 0.324789 0.551461 -0.217743 -0.350607 -0.442709 -0.641098 -0.219446
comes -0.223869 0.602514 0.49062 -0.220579 0.423196 0.553487 0.405266 0.585655 0.359152 0.0274285 0.293076 -0.610366 -0.0722675 -0.367668 0.354953 0.0339093 0.212204 0.319769 -0.397797 0.531144 -0.501472 -0.333941 0.62589 0.114195 0.345995 -0.511021 0.0270745 -0.653723 -0.487954 0.662376 -0.307841 -0.231007 0.551365 -0.497184 0.637172 -0.201428 0.467703 -0.180819 -0.315515 -0.333335 0.526394 -0.107234 0.495832 0.12607 -0.274514 -0.469637 -0.604976 -0.333963 0.549887 0.503609 0.0915748 -0.120644 -0.400283 -0.168565 0.319526 0.512626 0.402402 -0.402348 -0.407589 -0.452771 0.550864 0.280039 0.545372 -0.593451 0.471228 0.299414 0.506996 0.0105166 0.456926 -0.418799 0.064926 -0.519911 -0.354527 -0.428416 0.633079 -0.34373 -0.22066 0.167927 -0.0336027 0.634957 -0.444255 -0.189409 0.359761 0.273125 0.573247 -0.13209 0.610242 -0.477564 -0.372929 -0.442053 0.593866 -0.0510323 -0.111483 0.163581 0.262284 -0.357828 0.674664 -0.309152 0.514505 0.342376
2 0.0953068 0.176052 0.0879931 0.565542 0.133649 -0.371739 0.54682 -0.332158 0.54619 -0.379497 0.420347 0.0363518 -0.516632 -0.254787 0.47459 0.386293 0.592745 0.514047 -0.557784 0.624007 0.219306 -0.0439921 0.0786114 -0.50093 0.517378 -0.479219 0.127275 0.396221 -0.446629 0.468148 -0.255071 -0.0551328 -0.498533 -0.482265 0.548437 0.213795 0.192501 -0.577543 -0.277672 -0.557205 0.181824 -0.445777 -0.214674 -0.610903 -0.291466 0.31916 -0.112296 -0.275673 0.0380753 -0.431533 0.482898 0.62332 -0.513301 -0.380428 0.591801 0.60787 0.506917 -0.699443 0.166596 -0.0651639 -0.265793 -0.543929 0.189217 -0.0597923 0.566113 -0.0277642 -0.342537 0.326531 -0.535132 -0.202686 -0.346993 0.522867 -0.400774 0.432875 0.441838 -0.084692 0.13259 0.474932 -0.672449 0.261821 -0.0903248 0.539591 -0.159037 0.546551 0.306714 0.489629 0.764301 0.415326 -0.451503 0.448835 0.402926 -0.506395 0.413422 -0.218715 -0.353773 -0.563042 0.326226 0.521509 0.618499 0.517206
preinstalled -0.609001 0.619962 -0.539205 -0.431855 0.357146 -0.306664 0.472557 0.456822 -0.181673 -0.227976 0.556682 0.478938 -0.349182 0.66339 0.603754 0.199993 0.344657 0.20912 -0.136382 0.708006 0.613176 0.0910995 0.452076 -0.264073 0.393059 -0.479297 0.121066 0.146354 -0.0646866 0.00498972 -0.152561 -0.447814 -0.247152 -0.557156 0.340605 0.550581 0.039348 0.360921 -0.450086 -0.257863 0.59705 -0.428846 0.300942 -0.219921 0.595089 0.274116 -0.593453 0.293156 0.285342 0.379924 0.373614 -0.57175 -0.541913 -0.469443 -0.506884 0.631456 0.552994 0.519451 0.0940442 0.300518 0.617558 -0.414128 -0.411881 -0.0691335 -0.548672 0.0934218 -0.333782 -0.408605 -0.641705 -0.087658 0.459509 0.589653 -0.41074 -0.60653 0.499163 0.584388 0.156813 0.538698 -0.268893 0.409996 -0.398173 0.272085 0.239109 0.560174 -0.277503 0.518073 0.130249 0.44412 -0.462841 0.268529 -0.384031 -0.377658 0.3128 -0.097933 -0.422392 -0.245858 -0.209354 -0.0514339 0.580817 0.463715
as -0.657406 -0.285529 -0.524005 -0.433106 0.0686899 -0.168303 0.260135 -0.357593 0.363988 -0.0203878 0.344421 0.579268 -0.415984 -0.318284 0.45165 0.612217 -0.648376 -0.536765 -0.328315 0.215961 0.551251 -0.204981 -0.155662 0.545342 -0.453048 -0.449936 0.0323016 -0.27611 -0.526518 -0.522016 -0.526688 -0.443241 0.0854978 -0.296288 -0.422195 0.464651 0.62952 -0.416359 -0.419361 -0.384173 -0.343267 0.111886 -0.480601 0.215122 0.297545 0.482695 0.284241 -0.14732 -0.0480843 0.487333 -0.331119 -0.277111 -0.600265 -0.489064 -0.221153 0.449608 -0.297565 0.597208 0.649199 0.475458 0.460275 -0.242618 -0.528694 -0.445363 -0.391793 -0.661772 -0.478284 0.395624 -0.623964 0.436133 0.623086 0.545675 -0.64801 0.0270025 0.548351 0.684943 0.504995 0.562969 0.101354 -0.665949 -0.50146 0.316166 -0.624697 -0.666211 -0.647806 0.376614 -0.317469 0.578541 -0.653721 -0.269732 -0.612049 -0.503721 0.464099 0.213903 0.0675292 -0.524186 -0.506395 -0.172102 0.518851 0.521379
do -0.626118 -0.281432 -0.446875 0.671258 -0.629729 -0.33026 -0.200877 -0.673742 0.137426 -0.537408 -0.612848 0.567976 -0.145638 -0.453162 0.566566 0.378531 -0.387305 -0.111917 -0.558412 -0.42075 0.180613 0.365487 -0.630561 0.591271 0.561238 -0.467602 -0.129862 0.435496 -0.623488 0.659296 -0.603468 -0.556558 0.147389 -0.307794 0.298742 0.482543 -0.64349 -0.630016 -0.375894 -0.288958 -0.646835 -0.195782 -0.526835 0.442868 0.215673 0.535892 -0.0494411 0.345372 -0.600083 -0.582484 0.403911 0.752775 -0.415085 -0.547074 0.333596 -0.321789 -0.188055 -0.480414 0.68416 0.666944 -0.584245 0.324669 -0.658922 0.608157 0.490639 -0.146485 0.263029 0.671403 -0.121871 0.629339 0.67853 0.219719 -0.606566 0.750932 0.462354 -0.662118 0.586635 0.0792151 -0.0843045 0.0062964 -0.607897 0.500003 -0.253957 -0.0611948 -0.655068 0.308414 0.296247 0.624613 -0.267283 0.572076 -0.651204 -0.417213 0.483219 -0.462399 -0.489983 -0.410891 -0.554703 -0.0395605 0.591189 0.459565
most -0.0681323 0.553049 -0.471159 0.129575 -0.528523 0.270199 0.446205 0.428352 -0.54594 0.444167 -0.00155491 0.270444 -0.471994 -0.199322 -0.0770582 -0.156912 0.519403 0.380616 -0.323639 0.670038 0.145198 0.712269 -0.287459 -0.291589 -0.0627194 -0.0816542 0.369244 0.303347 0.120024 0.365983 -0.525117 0.0588651 -0.578375 -0.458213 0.522714 0.578216 -0.304988 -0.33812 -0.539088 0.22089 0.65317 0.098619 -0.175262 0.63056 0.224872 0.0209421 -0.624037 -0.210031 -0.506154 -0.541467 0.652776 -0.345453 -0.374232 -0.363936 -0.62929 -0.271838 0.544609 -0.216931 0.371339 0.202016 0.171538 -0.518637 -0.254158 0.378578 0.538925 0.496512 -0.399887 0.139278 0.125424 0.46304 0.202436 -0.286881 0.172195 0.179544 0.624053 -0.231264 0.64427 0.449439 0.512658 0.584827 -0.350917 0.381033 -0.0397855 0.701777 -0.291588 0.382966 -0.541832 -0.0719657 0.41167 0.708856 -0.461478 -0.330351 0.450296 -0.342241 -0.340408 -0.152407 -0.522432 -0.182288 0.143039 0.581867
versions 0.123438 0.0615338 -0.587583 -0.713832 -0.378713 0.696098 0.526558 0.423863 -0.450571 0.75188 -0.477009 -0.1445 -0.599701 -0.630406 0.248393 0.329407 -0.54212 -0.582671 -0.206611 -0.198524 -0.318717 0.638024 -0.447723 0.292968 -0.78929 -0.530653 0.371698 -0.685698 -0.327649 -0.24205 0.0919347 -0.0249815 -0.496441 -0.58815 0.344159 0.298196 0.666869 -0.496926 -0.546432 0.563133 0.185565 0.654938 -0.635686 0.583319 0.114435 0.477687 -0.115276 -0.699198 0.518003 0.51058 -0.350871 -0.691454 -0.397346 0.488473 -0.673503 -0.465594 0.613482 0.651111 0.0570799 0.366029 0.691159 -0.309421 -0.249497 0.102538 -0.575404 0.527581 -0.606368 0.569765 0.275217 0.569415 -0.261947 -0.491857 -0.336713 -0.355557 0.371994 0.533564 -0.0219406 0.604867 0.634085 -0.43702 -0.355469 0.595917 -0.598383 -0.545012 -0.110565 0.570591 -0.605404 0.143082 -0.426561 0.361987 0.179776 -0.463831 0.502647 -0.479222 -0.476863 -0.453874 0.0544068 0.166289 -0.166753 0.53502
contrast 0.35611 0.318588 -0.554431 0.579398 0.540901 -0.341966 0.221465 -0.0190934 0.123739 -0.521405 0.48133 0.385279 -0.362684 0.0838653 0.176546 -0.446714 0.0996022 -0.201467 0.590953 -0.356919 -0.542955 -0.26104 0.666939 -0.492215 -0.230449 0.572301 0.191259 -0.517878 -0.296401 -0.635376 0.335312 -0.609416 0.60628 0.590298 0.251945 -0.0688194 -0.381255 -0.714745 0.105071 0.435979 0.669298 -0.640371 0.634326 0.387914 0.401439 -0.214768 0.692629 0.175421 -0.0557048 -0.544835 -0.200656 0.524707 0.559158 0.0714364 0.727572 0.0594829 -0.321593 0.390243 -0.0567185 0.533236 0.57047 0.35108 0.0398008 0.720932 -0.329405 -0.608037 -0.156009 0.172749 -0.612388 -0.483326 0.0449408 -0.297208 0.492005 -0.665867 -0.45496 -0.260571 0.0997853 -0.512429 0.219999 0.363615 0.00385639 -0.512262 -0.192574 0.582737 0.0447095 -0.435838 -0.43888 -0.253168 0.473629 0.661829 -0.0593931 0.315105 -0.448506 0.564336 -0.282891 -0.151662 0.0443295 -0.625456 -0.520395 -0.595055
does 0.615012 -0.188414 -0.476306 0.538477 -0.146145 -0.659524 -0.203353 0.331309 -0.0219247 -0.0903755 0.305671 -0.51729 -0.382268 -0.214956 -0.306893 -0.579092 0.687451 -0.570562 0.0386808 -0.637608 -0.564794 0.450169 -0.539836 -0.652396 -0.475095 0.31956 0.307263 -0.100925 -0.345512 -0.455219 -0.0624191 0.220483 -0.00986194 0.696336 0.50937 0.567431 0.638728 -0.187551 -0.0421015 0.241292 0.519359 -0.471996 0.27335 0.275332 -0.456787 0.539228 0.132432 0.637152 0.479261 -0.289127 -0.440441 -0.148295 0.610048 0.404624 -0.0142328 -0.459986 -0.394641 0.508469 0.603446 0.541869 0.0298858 0.273202 -0.583363 -0.180787 -0.458484 -0.246566 0.603345 0.711851 -0.670931 0.33797 0.355209 -0.396908 -0.166082 -0.0670521 0.223625 -0.606957 -0.524365 -0.61208 0.492193 0.395759 0.564821 0.128365 -0.641419 -0.483126 0.440417 0.380331 -0.211977 0.283386 0.399166 -0.432614 -0.685834 0.169145 0.239379 -0.0211419 -0.45683 -0.405189 0.237075 -0.212276 0.47072 -0.546842
not -0.572257 -0.475023 0.42112 0.567778 0.12086 -0.444232 -0.403137 0.194507 -0.407908 0.680161 0.502205 0.495575 0.576783 -0.466958 0.56565 -0.439616 -0.433673 -0.482424 0.0447597 -0.170393 -0.372319 0.549491 0.0336054 -0.586584 -0.237679 0.401642 -0.307852 0.0472677 -0.296874 -0.47195 -0.178814 -0.318081 -0.192281 0.679263 0.63973 0.636894 0.485326 -0.283638 0.590947 -0.680365 0.436393 -0.346485 0.463633 0.417322 0.414356 0.697489 -0.56966 0.655032 0.442149 -0.0368595 -0.487685 -0.622023 0.534673 0.254391 -0.586501 -0.44582 -0.226158 -0.563213 -0.0492025 0.256282 -0.562343 0.529187 -0.508159 -0.557356 -0.516728 -0.400152 -0.301139 -0.136849 -0.414611 -0.267111 0.437821 0.121495 -0.722995 0.244816 -0.347839 0.283696 -0.600143 -0.145459 0.231719 -0.579646 0.531325 -0.100597 -0.208822 0.0717481 0.576191 0.60734 -0.469783 0.524707 0.57866 -0.642716 -0.617138 -0.551754 -0.471682 -0.634054 -0.515945 -0.607051 0.482754 -0.449166 -0.426082 -0.626827
include 0.165481 -0.48222 0.529409 0.247238 0.666927 0.405827 -0.554334 -0.532297 -0.0223668 0.506652 0.511839 0.659139 0.242904 -0.483632 0.458843 -0.217896 -0.576722 -0.383758 0.0807561 -0.400313 -0.381764 -0.495791 0.520724 -0.161135 0.494495 0.627207 0.0148671 -0.544396 -0.478857 -0.22476 -0.523268 -0.586092 0.350968 0.181763 0.494576 -0.537889 0.260656 -0.463284 0.66869 -0.277833 0.522425 0.0600493 0.489165 0.468978 0.361019 0.30607 0.440954 0.58845 0.578676 -0.467951 -0.643479 -0.479258 0.50113 -0.436966 0.0828238 -0.128136 -0.645374 -0.252118 0.25092 -0.0640548 0.564986 0.596126 -0.439161 0.385671 0.0259422 -0.455297 -0.577371 -0.573613 -0.141402 -0.662186 0.503633 -0.437889 -0.0686428 0.316412 -0.595763 0.10588 -0.362856 0.59078 0.292077 -0.533228 0.342192 -0.0492819 -0.0559133 0.471914 0.287631 -0.460405 -0.498374 0.559186 0.394333 -0.173539 -0.0706667 -0.544774 -0.59103 0.219345 -0.27869 -0.391829 0.447137 -0.409714 -0.49675 -0.604797
any 0.597455 -0.555 0.271327 -0.470082 0.0480648 -0.177478 -0.383786 0.375975 0.472108 0.437736 0.534663 -0.309961 -0.608799 -0.615842 -0.466697 -0.470151 0.356042 -0.238977 -0.527421 -0.432447 -0.583122 0.0437388 -0.509306 -0.0383044 -0.289816 0.438944 0.631823 -0.594492 0.359245 -0.083829 -0.528817 0.281708 -0.408288 0.136668 0.409666 -0.109091 0.477721 0.300561 0.223876 0.658552 0.619995 0.115373 -0.272254 0.558091 -0.620131 0.285566 0.316692 0.2885 0.31049 -0.436103 -0.41118 -0.531485 0.321176 0.0523291 -0.350479 -0.48138 -0.277765 0.387665 0.279685 0.225733 0.340973 -0.300361 0.0212248 0.272163 0.130116 0.116652 0.162165 0.132452 -0.0821617 -0.533524 0.382738 -0.643173 0.446189 0.467632 0.481135 -0.121052 -0.297853 0.0409514 0.394541 0.414539 0.258602 0.559076 -0.574426 0.439511 0.453936 -0.136055 -0.490093 0.529686 0.228021 0.311107 -0.218454 -0.325454 0.475029 0.11121 -0.148685 -0.374138 0.482751 0.481021 -0.0860546 -0.24066
let's -0.189237 0.212136 -0.530666 -0.590497 0.258974 0.456884 0.197844 0.438668 0.244133 -0.184736 0.0517503 -0.408449 -0.00603799 0.103372 -0.424336 -0.588624 0.561873 0.236101 -0.0303535 0.0630808 -0.132142 -0.225942 -0.386922 0.585632 -0.0329454 0.454026 -0.195822 0.014496 0.586374 0.442009 0.208986 0.0718492 -0.0804842 -0.123673 0.0441426 -0.157032 0.547103 0.378228 -0.460407 0.614199 0.462537 0.34319 0.224574 0.533601 -0.00567583 0.513147 -0.504474 0.281281 -0.142735 -0.509598 0.000878605 -0.469909 -0.519406 -0.207855 -0.468403 -0.059225 0.335713 -0.393523 -0.566908 -0.434976 0.492247 -0.214001 0.318614 -0.398491 0.0725051 0.0311793 -0.054696 -0.247051 0.313955 -0.419085 0.203919 0.317105 -0.462637 -0.543973 0.41252 -0.252036 0.238648 0.0360807 0.0384896 0.177685 -0.174512 -0.294512 -0.290823 0.451272 0.482518 0.0950137 0.34938 -0.198965 -0.0631632 0.116569 -0.0134954 0.166779 0.245539 -0.559605 -0.390382 0.440166 0.160957 -0.131409 -0.403811 0.301429
check -0.347101 -0.0937558 0.241766 -0.555212 0.365371 0.392308 0.447096 0.549629 -0.0987857 -0.507538 -0.464624 -0.268203 0.339747 -0.549785 -0.103929 0.264472 -0.0596935 0.550492 -0.0916542 -0.000245408 0.480687 -0.540706 0.435736 0.528518 0.17341 0.316922 -0.412572 0.294609 -0.0237055 0.311699 0.377646 -0.503787 0.434788 -0.360959 -0.0889754 -0.173545 -0.578254 -0.51285 -0.195395 0.50956 -0.00461042 0.0120847 0.495575 -0.0404582 0.561611 0.496432 -0.62005 0.467853 0.476653 0.431772 -0.290978 -0.203454 -0.258619 0.348592 0.464739 -0.43815 -0.147398 -0.0365327 0.0670224 -0.201239 -0.0461831 0.549395 0.466522 -0.0101778 -0.415391 0.463236 -0.216509 -0.10224 -0.105097 0.0541492 0.321486 0.551945 -0.557734 -0.344723 0.131835 0.349672 0.204336 -0.16717 -0.534509 -0.456644 -0.199844 -0.312778 0.0724989 -0.419096 0.406693 -0.36593 -0.181705 -0.434638 0.116468 0.495841 0.146059 0.469187 -0.266957 -0.502829 -0.156997 0.384104 0.628021 -0.160566 0.104421 0.158753
for -0.338202 -0.261816 -0.2412 -0.361603 -0.341576 0.40527 -0.00153687 0.438219 -0.142177 -0.542405 -0.0606464 -0.094172 0.253059 -0.334538 -0.0227847 -0.450234 0.539982 0.529967 0.10986 0.134847 0.3044 -0.489184 0.348681 0.52508 0.288734 -0.0222488 -0.316018 0.111798 0.00353378 0.0383685 0.362929 -0.00870702 0.42983 -0.501768 -0.1882 -0.0328983 -0.367696 -0.175743 -0.102291 0.255419 0.379728 -0.0822866 0.40865 0.0322303 0.455788 0.347813 -0.457005 0.49558 0.541749 0.11935 -0.0948613 -0.178404 -0.0935338 0.197351 0.387748 0.190593 0.135581 -0.497906 -0.517897 -0.109284 -0.164475 0.438701 0.516954 0.457908 -0.415536 0.112461 0.248153 -0.335295 0.183483 -0.41529 0.0178598 0.515482 -0.533489 -0.555365 -0.256544 0.128873 -0.0951988 0.22725 -0.495568 0.229755 -0.178756 -0.353808 0.494114 -0.507997 0.0940832 -0.163438 -0.15258 -0.358083 -0.0351785 -0.197883 0.0572033 0.219624 -0.0444563 -0.321876 -0.158247 -0.190222 0.534369 0.262441 0.258219 -0.149022
open 0.487065 -0.230744 0.274994 0.284305 -0.504536 0.475487 -0.450018 0.446468 -0.192179 -0.324446 0.253256 0.185258 -0.479113 -0.124621 0.349563 -0.520965 0.477792 0.470449 -0.483712 0.462788 -0.316962 -0.321298 0.439016 0.489777 0.413385 -0.291615 0.304663 -0.316741 -0.484113 0.0574495 0.28751 0.383676 0.513776 -0.375132 0.381998 -0.295958 0.300414 0.346271 -0.222298 -0.149211 -0.298105 -0.250593 -0.394374 -0.519963 0.15441 0.168274 -0.400712 -0.208125 0.311863 0.244282 -0.475863 0.410871 -0.348259 -0.528087 0.0952518 0.275786 -0.0884673 -0.490185 -0.113663 0.244928 0.278181 -0.0383835 0.379501 -0.195113 -0.471768 0.34975 0.447633 -0.139835 0.38767 -0.306909 -0.385044 -0.283446 0.311946 0.0525072 -0.0684659 0.342635 -0.460651 0.443386 -0.144967 0.0814931 -0.0931098 0.452325 0.0400429 0.102985 0.021018 0.232004 0.383024 -0.15867 -0.109972 -0.132376 0.196072 0.062253 0.408637 -0.446577 -0.271467 -0.434557 0.411232 0.143244 -0.100822 0.0983751
up 0.319253 -0.497605 0.26848 0.0935257 -0.468431 0.0325684 -0.475711 -0.0294051 0.184767 0.00620602 0.390011 0.421626 -0.351946 0.27761 0.44346 -0.420576 0.499272 0.204671 -0.213313 0.440457 0.0671096 -0.103369 -0.038458 -0.0631108 -0.372118 -0.242356 0.0439548 -0.277605 -0.388132 -0.44363 -0.0125374 0.261008 0.18979 -0.302842 -0.304119 -0.377411 -0.372015 0.280472 0.411065 -0.386716 -0.32127 -0.213599 0.340121 -0.388907 -0.330043 -0.275393 -0.179031 0.234911 -0.429225 -0.318275 -0.0909363 0.403468 0.134499 -0.337128 -0.398477 -0.10664 -0.402766 -0.288508 0.15356 -0.0870614 -0.302454 -0.342734 0.33165 0.439624 -0.410216 -0.251657 0.366465 -0.0963997 0.45814 0.203756 -0.479728 -0.292043 0.311962 0.242489 -0.246105 -0.303681 -0.429423 0.0641614 0.200864 -0.473595 0.379963 0.408844 -0.143429 -0.378541 -0.427358 -0.234341 0.107235 -0.0221022 -0.0195316 -0.184562 -0.122619 0.448399 0.479992 -0.125149 -0.390715 -0.364375 0.386827 0.00726007 -0.414941 -0.409518
line -0.0420286 -0.381923 0.371146 0.0843692 -0.406385 -0.0924651 -0.367681 -0.374928 0.271276 0.331671 0.288047 0.287964 -0.176032 0.323893 0.145907 -0.185873 0.419945 -0.283997 0.159853 0.418223 -0.0599602 0.137808 0.127987 -0.208036 0.182763 -0.23317 0.397454 -0.433343 -0.282274 -0.226005 0.4144 0.375295 -0.349194 -0.0516738 -0.407288 -0.284577 0.11679 0.438868 0.381269 -0.116373 0.011167 -0.0446351 0.145481 -0.0408456 -0.331362 0.204815 0.276229 -0.399259 -0.386779 -0.115143 -0.188755 0.227315 0.130626 -0.394076 0.138527 -0.0108044 -0.36791 0.0527439 -0.0853771 -0.0472259 -0.299495 -0.268264 -0.273745 0.147934 -0.281456 0.382941 -0.068685 0.264663 0.366729 0.330507 -0.0899518 -0.0158811 0.321124 0.235899 0.243409 -0.194739 -0.216673 0.339112 0.226201 -0.427993 0.172066 0.284051 0.242713 0.0828431 -0.21352 -0.0258168 0.428719 0.161374 0.263788 0.300505 0.127472 0.193013 0.333214 -0.0908694 -0.256234 0.191416 0.263897 -0.310974 -0.286053 -0.264958
prompt -0.284195 -0.277249 0.341935 -0.42386 -0.211244 -0.23322 -0.354301 -0.27456 -0.280636 0.351998 0.298277 0.158532 -0.128401 0.314053 0.153786 0.380215 0.0937576 -0.0703399 0.227934 0.227534 0.297944 0.317762 0.273292 -0.416216 0.233972 0.116864 0.352128 -0.0626188 0.217424 -0.351478 0.265484 0.163529 -0.384571 -0.0321212 -0.241092 -0.330373 -0.274108 -0.120611 -0.176166 -0.343305 -0.234059 -0.0177072 0.244704 0.259112 -0.375082 -0.388475 0.362679 -0.213428 0.0602865 -0.028208 -0.181181 0.177379 0.275612 -0.258785 -0.154229 0.327585 -0.382216 0.359634 0.207323 0.320665 -0.211296 -0.083252 -0.269392 0.228337 0.250453 0.343035 -0.192375 -0.298454 0.263557 0.295688 0.293568 -0.233255 -0.0516417 0.216129 0.355569 -0.291191 -0.216519 -0.291947 0.216636 -0.310534 0.395042 0.306037 0.217302 -0.29406 -0.319912 0.268007 0.372294 0.380573 -0.0933792 -0.0530347 -0.179201 0.296632 -0.0825106 0.104363 -0.279502 0.180608 0.205367 0.0366535 -0.254768 -0.387876
if -0.0740256 -0.106263 0.29359 0.115387 -0.325427 0.0534858 -0.288905 -0.293093 -0.0737715 0.260352 0.107993 0.247262 0.262699 0.156297 0.0242392 -0.0823065 0.0671985 0.0523667 0.242794 0.325023 0.247697 -0.00658034 0.0536263 -0.22052 0.278678 -0.361306 0.272702 -0.137096 -0.199255 -0.134668 0.19064 0.103642 -0.378886 0.25806 -0.313116 0.0292026 0.220485 0.356699 0.233609 -0.129523 -0.207049 0.3202 -0.170527 0.211826 -0.377543 0.223478 0.270515 -0.259158 -0.229795 -0.320932 0.171056 -0.225471 0.134347 -0.264184 0.191687 0.19286 -0.298378 0.28907 0.0340325 0.244101 -0.351377 -0.30348 -0.363211 0.0548586 0.00964892 0.193901 -0.246112 0.241522 0.0286981 0.00611327 0.14041 0.303837 0.321484 -0.0365142 0.0985212 -0.0911402 -0.242158 0.317235 0.0694719 -0.113729 -0.0296518 -0.0433216 0.277338 0.205929 0.00112572 -0.169234 0.277478 -0.158466 -0.0752496 0.0174669 0.198157 -0.217854 0.253871 0.305533 0.184109 0.254301 -0.246062 0.117919 0.126397 -0.21337
are -0.00350552 0.18585 0.248759 0.0168379 -0.0725452 0.101946 -0.0951419 -0.0409501 -0.0979008 0.224696 -0.252262 0.0323203 0.224591 -0.185976 -0.0363923 0.171691 -0.0386534 -0.135707 -0.197419 0.106499 -0.0838936 0.103308 0.113161 -0.140082 0.114083 -0.239084 0.0780939 0.128265 0.0385257 -0.121399 -0.145561 -0.109798 -0.16748 -0.0157329 -0.0872565 -0.0429369 -0.0268306 -0.118303 -0.0558626 -0.0950283 -0.249561 -0.15793 0.191762 0.209771 -0.155317 -0.154447 -0.110842 -0.156887 -0.0436414 0.180152 0.187908 -0.142936 -0.0169584 0.154743 -0.267995 0.222623 -0.293397 0.180862 -0.0961299 -0.00127857 -0.091515 0.23143 -0.116773 -0.145175 0.203083 0.0412763 -0.107148 0.0176027 -0.0436972 0.013872 -0.133319 -0.11099 0.129967 0.201798 0.0134121 -0.190109 -0.265133 -0.097921 0.195694 0.24602 0.035507 -0.0679597 0.110807 0.0848593 -0.188891 -0.12844 0.115787 -0.224791 -0.257392 -0.0517449 0.101725 -0.0488221 -0.216307 0.260177 0.153218 0.233874 0.13855 0.164187 -0.120497 -0.112449
or -0.133781 0.0815818 0.0155328 -0.134884 0.0753956 0.059066 0.137363 0.0913047 -0.0154913 0.0896169 -0.0431985 -0.102463 0.0616 -0.0713573 0.0532153 -0.0810767 -0.0787548 -0.101824 -0.0361875 -0.030397 -0.0641738 0.0362265 -0.0479078 0.115817 -0.0832945 -0.104414 -0.058013 -0.0890367 -0.108896 0.026515 -0.0240305 -0.0966725 0.0379239 -0.126015 0.0332033 -0.106782 0.0744372 0.0245831 -0.0356214 -0.100712 0.0116047 -0.0172006 0.0632266 0.0515046 -0.0146464 -0.0671568 -0.0361011 0.0814454 0.0697773 0.0647748 -0.0464436 -0.180898 0.0347606 0.0445051 -0.052668 0.0484464 0.0218698 0.0359233 -0.0258927 0.0369312 0.113585 0.0705489 -0.0450902 -0.0986482 0.0985831 -0.0213985 0.0849164 0.020605 0.104401 0.126268 0.106123 -0.144533 -0.141263 -0.115873 0.061351 -0.107179 -0.0306756 -0.0725516 0.0890824 -0.0337991 -0.152631 0.0181663 0.082794 -0.0885037 0.0941294 -2.11107e-05 0.0324291 -0.0728592 -0.131287 -0.0845084 0.0386559 -0.012845 -0.0696917 0.0706028 0.0404921 0.00152175 0.122165 -0.0956929 -0.1336 -0.0561934
type -0.0222211 -0.0524247 -0.101928 -0.117031 0.0506961 0.0257807 -0.00673267 -0.0387932 -0.102557 -0.022508 -0.026818 0.102639 -0.0543023 -0.019303 -0.000146374 -0.062301 -0.0824606 -0.0214249 0.0824083 -0.0451794 0.0390031 0.0767764 -0.0677438 -0.0302699 0.0200712 -0.0861422 0.0641798 -0.0624547 -0.0466867 -0.0862336 0.0613662 -0.0561886 0.0404381 -0.0211401 0.0530724 -0.0142368 0.104554 0.0268171 -0.105825 0.0436938 -0.0720361 -0.0108131 -0.00419611 0.0622933 0.0637881 -0.0319856 0.0663926 -0.0978022 0.0440055 0.0433043 -0.041875 -0.017843 0.00763819 0.054799 0.0103491 -0.0141032 0.0627272 0.0488641 4.69316e-05 0.0303408 0.0517759 0.0197857 -0.056985 -0.0603525 -0.0606714 0.0190035 -0.0310123 0.0614346 -0.00874775 0.0419238 0.0978418 0.0366768 -0.10889 -0.0342095 0.026575 -0.00623573 -0.0411521 0.0394001 0.0681118 -0.112277 0.00934507 0.108535 -0.0528782 -0.0948339 -0.00630721 -0.00510166 -0.0764799 0.0448621 -0.00872212 -0.102124 0.0470044 -0.0453098 0.00940703 -0.017534 -0.0682748 -0.00921734 0.0247527 -0.0490157 -0.0563183 0.0168777
use -0.0875438 0.105259 0.00556459 0.00797564 0.158402 -0.0943246 0.104559 0.025561 0.0998755 -0.0644319 -0.0275228 0.032556 -0.00363137 0.03825 -0.0993761 -0.0612455 0.0137154 -0.0271285 -0.0746979 -0.0671631 -0.059491 0.0258722 0.119649 -0.0267295 0.0663989 0.0676748 0.0427199 0.0820675 0.107347 -0.0714252 0.110002 -0.0151125 0.0772723 -0.0131522 0.030961 0.0649744 0.0689404 -0.0534475 0.0764389 0.0288072 -0.0402587 -0.116859 0.113836 0.0702018 0.0288428 0.0227017 0.0671683 -0.0760434 -0.0984894 -0.0519506 0.11172 0.0766581 0.00377138 0.0743156 0.0997737 -0.0399014 -0.0795946 0.0685246 -0.0585688 -0.00223552 0.0257818 0.0180788 0.0818344 -0.00337978 -0.0406044 0.098005 0.0841746 -0.0707797 0.0442705 0.00630665 -0.1255 0.00983239 0.0991622 -0.024912 -0.101531 0.0426234 -0.0152811 -0.112875 -0.00380413 -0.00739313 -0.0480325 -0.033877 -0.110481 -0.0634798 -0.10473 0.0498241 0.0396019 -0.0539887 0.0689388 0.0785238 -0.0571113 0.0609113 -0.0990518 0.161267 0.0232397 0.0813574 -0.0730732 -0.104411 -0.135248 0.051939
